<?xml version="1.0"?>
<opencv_storage>
<opencv_ml_svm>
  <format>3</format>
  <svmType>C_SVC</svmType>
  <kernel>
    <type>LINEAR</type></kernel>
  <C>2.6699999999999999e+000</C>
  <term_criteria><epsilon>1.1920928955078125e-007</epsilon>
    <iterations>1000</iterations></term_criteria>
  <var_count>48</var_count>
  <class_count>2</class_count>
  <class_labels type_id="opencv-matrix">
    <rows>2</rows>
    <cols>1</cols>
    <dt>i</dt>
    <data>
      0 1</data></class_labels>
  <sv_total>1</sv_total>
  <support_vectors>
    <_>
      2.91967876e-006 -3.50433970e-006 -3.48728245e-005 -5.22258670e-005
      1.10085639e-004 1.16996925e-005 5.74104197e-005 -2.38895555e-005
      -2.01660441e-005 -6.34707658e-006 -2.77658582e-005
      -1.34249885e-005 -3.74506783e-007 1.22081724e-006 -5.73800753e-006
      4.97281826e-006 8.47999399e-006 -2.71862791e-005 -2.79976553e-006
      -1.04054234e-005 2.60151387e-006 6.31719304e-005 -2.53175276e-005
      4.36945738e-005 -1.43738334e-005 -1.57535342e-005 -1.76826197e-005
      -5.62026389e-006 5.03096771e-006 5.84130203e-006 4.12680265e-006
      -1.38078385e-005 6.80667836e-006 -4.45835285e-005 1.60844957e-005
      -3.03634442e-005 -4.65942103e-005 -4.73779219e-005 5.00670976e-005
      2.20856346e-005 1.05962063e-004 3.55306793e-006 -2.46264863e-005
      4.29871443e-006 -3.16986444e-007 -6.84570114e-006 1.01771514e-006
      -9.16718363e-006</_></support_vectors>
  <uncompressed_sv_total>14</uncompressed_sv_total>
  <uncompressed_support_vectors>
    <_>
      0. 6. 514. 6108. 5977. 26313. 50388. 12523. 10743. 21383. 12056.
      4741. 2857. 3764. 2361. 266. 0. 5. 985. 7884. 3857. 24066. 51163.
      15171. 9769. 21989. 12522. 3115. 2840. 3761. 2480. 393. 0. 0. 801.
      7737. 2914. 12156. 43187. 26311. 11416. 7734. 19390. 12232. 7881.
      3557. 3776. 908.</_>
    <_>
      21. 317. 3830. 30208. 29487. 19604. 50085. 11621. 5179. 2144.
      1020. 668. 700. 758. 1086. 3272. 98. 1090. 12957. 41044. 15711.
      14125. 50659. 9936. 5098. 2010. 853. 577. 682. 684. 996. 3480.
      274. 3173. 25283. 32099. 12820. 8833. 45802. 14768. 6504. 2808.
      1059. 569. 614. 700. 905. 3789.</_>
    <_>
      303. 1391. 4077. 18735. 16209. 21597. 62813. 11658. 4306. 3479.
      2735. 2480. 2206. 1857. 2243. 3911. 644. 2252. 8851. 18121. 14111.
      21833. 61529. 10025. 3978. 3254. 2498. 2383. 2095. 1778. 2001.
      4647. 838. 1926. 9499. 14376. 13110. 26566. 58879. 8808. 4956.
      3913. 3089. 2771. 2285. 1915. 2009. 5060.</_>
    <_>
      736. 4978. 26380. 19878. 43211. 31399. 16227. 6064. 3248. 2671.
      1246. 781. 598. 595. 692. 1296. 1539. 7252. 30947. 43552. 29366.
      25525. 8875. 3713. 2968. 1823. 866. 686. 524. 662. 688. 1014. 829.
      4397. 30197. 39015. 13707. 10769. 11205. 6896. 17931. 16431. 2810.
      2394. 1006. 720. 755. 938.</_>
    <_>
      1156. 1630. 4909. 21145. 30156. 57724. 26951. 5127. 2533. 1918.
      968. 829. 792. 790. 1058. 2314. 1327. 2016. 8749. 29224. 34309.
      47363. 21865. 4329. 2394. 1727. 908. 752. 762. 771. 936. 2568.
      1129. 2408. 11887. 33599. 30766. 23601. 41668. 4354. 2252. 1526.
      927. 692. 703. 755. 864. 2869.</_>
    <_>
      178. 766. 2053. 3049. 5372. 18687. 15296. 58319. 13368. 6591.
      4605. 3461. 3462. 6090. 6361. 12342. 446. 1256. 2479. 3484. 12865.
      19798. 9698. 58048. 11214. 4502. 4562. 3885. 4730. 6824. 4532.
      11677. 834. 1498. 2791. 5796. 23176. 8811. 8886. 39198. 29020.
      4536. 4501. 3856. 5778. 5700. 5177. 10442.</_>
    <_>
      326. 969. 2498. 3786. 7988. 12659. 51810. 35555. 5677. 3938. 3094.
      2693. 4243. 5527. 6277. 12960. 424. 1134. 2513. 3690. 11679.
      10141. 42627. 43891. 4454. 4187. 3423. 3245. 5346. 3909. 3044.
      16293. 732. 1504. 3042. 8425. 9199. 7279. 10560. 75666. 5056.
      3933. 3048. 3466. 5280. 3953. 3308. 15549.</_>
    <_>
      437. 4964. 27309. 5269. 7296. 25080. 46859. 4794. 4959. 4880.
      4821. 3380. 2319. 2287. 4388. 10958. 355. 12222. 20170. 5074.
      6802. 17472. 55309. 4428. 4773. 5586. 5100. 2849. 2172. 2191.
      2735. 12762. 760. 12705. 19927. 5060. 6093. 14318. 57010. 6675.
      4897. 5380. 5157. 2699. 2624. 3772. 3680. 9243.</_>
    <_>
      0. 0. 3776. 9396. 10450. 13323. 31426. 20110. 6360. 5101. 10969.
      5992. 5196. 26043. 9472. 2386. 0. 0. 3003. 9386. 10755. 13618.
      28569. 21419. 6649. 5027. 6981. 10636. 5079. 25972. 7918. 4988. 0.
      0. 3960. 8290. 10376. 12300. 23735. 25875. 8612. 5541. 11774.
      5155. 4788. 24486. 9056. 6052.</_>
    <_>
      833. 4124. 18827. 19441. 37111. 29325. 25894. 10200. 4504. 2817.
      2450. 1132. 815. 743. 606. 1178. 1576. 6788. 23815. 41799. 32587.
      20608. 18048. 4192. 2899. 2718. 1335. 870. 714. 597. 583. 871.
      1012. 5388. 25057. 42218. 21038. 9488. 15921. 5457. 6703. 18136.
      3670. 2211. 1739. 596. 626. 740.</_>
    <_>
      265. 1845. 3664. 6649. 23976. 38693. 29918. 27992. 8025. 4050.
      3108. 1892. 1374. 1316. 2863. 4370. 514. 3350. 4082. 16852. 30739.
      32733. 39543. 9209. 5033. 3648. 2595. 1549. 1406. 1230. 1411.
      6106. 388. 3196. 5540. 32196. 20112. 32770. 34664. 7926. 4765.
      3785. 2577. 1528. 1440. 1295. 1417. 6401.</_>
    <_>
      654. 3979. 8392. 40237. 31602. 41528. 10446. 5826. 4630. 1860.
      1567. 1383. 1063. 784. 3265. 2784. 878. 4883. 20166. 48628. 18303.
      35423. 8844. 6187. 4023. 1539. 1238. 1138. 1131. 900. 836. 5883.
      336. 2625. 8918. 17198. 11562. 34809. 19799. 17348. 12949. 8678.
      6701. 4008. 3105. 2502. 2361. 7101.</_>
    <_>
      438. 2476. 27798. 14396. 11106. 18044. 18888. 38645. 6623. 3856.
      3080. 2332. 2214. 2495. 2613. 4996. 354. 3388. 31571. 15263.
      17453. 12407. 11922. 40352. 7834. 2796. 2302. 2540. 2496. 1665.
      1862. 5795. 539. 4631. 36172. 17872. 14982. 8668. 8802. 30212.
      20264. 2893. 2108. 1881. 2154. 1883. 1359. 5580.</_>
    <_>
      0. 26. 261. 29834. 24824. 37203. 37524. 10258. 4954. 4160. 3041.
      2732. 1478. 906. 1251. 1548. 0. 21. 295. 35933. 26297. 34791.
      33980. 10494. 5289. 3357. 3059. 1519. 993. 835. 1163. 1974. 0. 18.
      1311. 39899. 33210. 21514. 27513. 20558. 5827. 2252. 1622. 987.
      854. 903. 846. 2686.</_></uncompressed_support_vectors>
  <decision_functions>
    <_>
      <sv_count>1</sv_count>
      <rho>4.1818360125689917e+000</rho>
      <alpha>
        1.</alpha>
      <index>
        0</index></_></decision_functions></opencv_ml_svm>
</opencv_storage>
